{"loss": 0.12085249274969101, "_timestamp": 1673611777.010998, "_runtime": 194.2493278980255, "_step": 409, "gradients/classifier.3.bias": {"_type": "histogram", "values": [1.0, 0.0, 0.0, 0.0, 0.0, 0.0, 0.0, 0.0, 0.0, 0.0, 0.0, 0.0, 0.0, 0.0, 0.0, 0.0, 0.0, 0.0, 0.0, 0.0, 0.0, 0.0, 0.0, 0.0, 0.0, 0.0, 0.0, 0.0, 0.0, 0.0, 0.0, 0.0, 1.0, 0.0, 1.0, 0.0, 1.0, 0.0, 0.0, 0.0, 0.0, 0.0, 0.0, 0.0, 1.0, 0.0, 0.0, 1.0, 0.0, 0.0, 1.0, 0.0, 1.0, 0.0, 0.0, 0.0, 0.0, 0.0, 0.0, 0.0, 0.0, 0.0, 1.0, 1.0], "bins": [-0.03267955034971237, -0.031911030411720276, -0.03114250861108303, -0.030373986810445786, -0.02960546500980854, -0.028836943209171295, -0.0280684232711792, -0.027299901470541954, -0.02653137966990471, -0.025762857869267464, -0.024994337931275368, -0.024225816130638123, -0.023457294330000877, -0.022688772529363632, -0.021920252591371536, -0.02115173079073429, -0.020383210852742195, -0.01961468905210495, -0.018846169114112854, -0.01807764731347561, -0.017309125512838364, -0.016540605574846268, -0.015772083774209023, -0.015003561973571777, -0.014235042035579681, -0.01346652116626501, -0.012697999365627766, -0.011929478496313095, -0.01116095669567585, -0.01039243582636118, -0.009623914957046509, -0.008855393156409264, -0.008086871355772018, -0.0073183500207960606, -0.006549828685820103, -0.005781307816505432, -0.005012786481529474, -0.004244265146553516, -0.003475744277238846, -0.002707222942262888, -0.0019387006759643555, -0.0011701794574037194, -0.0004016582388430834, 0.00036686286330223083, 0.0011353841982781887, 0.0019039055332541466, 0.002672426402568817, 0.003440947737544775, 0.004209468141198158, 0.004977989476174116, 0.005746510811150074, 0.006515031680464745, 0.0072835530154407024, 0.00805207435041666, 0.008820595219731331, 0.009589117020368576, 0.010357637889683247, 0.011126158758997917, 0.011894680559635162, 0.012663201428949833, 0.013431722298264503, 0.014200244098901749, 0.01496876496821642, 0.01573728583753109, 0.016505807638168335]}, "gradients/classifier.3.weight": {"_type": "histogram", "values": [1.0, 0.0, 0.0, 0.0, 2.0, 1.0, 2.0, 1.0, 0.0, 2.0, 1.0, 4.0, 4.0, 2.0, 4.0, 5.0, 2.0, 3.0, 12.0, 9.0, 5.0, 14.0, 20.0, 24.0, 26.0, 27.0, 33.0, 47.0, 67.0, 60.0, 74.0, 91.0, 118.0, 103.0, 105.0, 91.0, 62.0, 42.0, 40.0, 31.0, 30.0, 20.0, 14.0, 14.0, 11.0, 6.0, 6.0, 12.0, 4.0, 6.0, 1.0, 1.0, 6.0, 2.0, 1.0, 3.0, 1.0, 0.0, 2.0, 1.0, 0.0, 0.0, 1.0, 3.0], "bins": [-0.10632163286209106, -0.10306914895772934, -0.09981667250394821, -0.09656418859958649, -0.09331171214580536, -0.09005922824144363, -0.08680674433708191, -0.08355426788330078, -0.08030178397893906, -0.07704930007457733, -0.0737968236207962, -0.07054433971643448, -0.06729185581207275, -0.06403937935829163, -0.0607868954539299, -0.057534415274858475, -0.05428193509578705, -0.05102945491671562, -0.047776974737644196, -0.04452449083328247, -0.041272010654211044, -0.03801953047513962, -0.03476704657077789, -0.03151456639170647, -0.02826208621263504, -0.025009606033563614, -0.02175712399184704, -0.018504641950130463, -0.015252161771059036, -0.01199968159198761, -0.008747199550271034, -0.005494717508554459, -0.0022422373294830322, 0.0010102437809109688, 0.00426272489130497, 0.007515206001698971, 0.010767687112092972, 0.014020167291164398, 0.017272649332880974, 0.02052513137459755, 0.023777611553668976, 0.027030091732740402, 0.030282573774456978, 0.03353505581617355, 0.03678753599524498, 0.040040016174316406, 0.04329250007867813, 0.04654498025774956, 0.049797460436820984, 0.05304994061589241, 0.05630242079496384, 0.05955490469932556, 0.06280738115310669, 0.06605986505746841, 0.06931234896183014, 0.07256482541561127, 0.07581730931997299, 0.07906979322433472, 0.08232226967811584, 0.08557475358247757, 0.0888272374868393, 0.09207971394062042, 0.09533219784498215, 0.09858468174934387, 0.101837158203125]}, "gradients/classifier.1.bias": {"_type": "histogram", "values": [1.0, 0.0, 1.0, 1.0, 1.0, 1.0, 0.0, 0.0, 1.0, 2.0, 0.0, 0.0, 5.0, 1.0, 3.0, 2.0, 3.0, 1.0, 3.0, 3.0, 5.0, 4.0, 4.0, 3.0, 2.0, 5.0, 4.0, 4.0, 0.0, 5.0, 5.0, 3.0, 3.0, 3.0, 3.0, 4.0, 4.0, 4.0, 6.0, 1.0, 2.0, 2.0, 2.0, 1.0, 4.0, 3.0, 3.0, 0.0, 3.0, 0.0, 0.0, 1.0, 0.0, 2.0, 2.0, 0.0, 0.0, 0.0, 1.0, 0.0, 0.0, 0.0, 0.0, 1.0], "bins": [-0.006544303148984909, -0.0063079530373215675, -0.006071602925658226, -0.0058352528139948845, -0.00559890316799283, -0.005362553056329489, -0.005126202944666147, -0.004889852833002806, -0.0046535031870007515, -0.00441715307533741, -0.0041808029636740685, -0.003944452852010727, -0.0037081032060086727, -0.003471753094345331, -0.0032354029826819897, -0.002999052871018648, -0.0027627027593553066, -0.002526352647691965, -0.0022900027688592672, -0.0020536526571959257, -0.001817302661947906, -0.0015809526666998863, -0.0013446025550365448, -0.001108252559788525, -0.0008719023317098618, -0.0006355523364618421, -0.00039920228300616145, -0.00016285222955048084, 7.349776569753885e-05, 0.00030984776094555855, 0.0005461978726089001, 0.0007825478678569198, 0.0010188976302742958, 0.0012552476255223155, 0.0014915976207703352, 0.0017279477324336767, 0.0019642976112663746, 0.002200647722929716, 0.0024369978345930576, 0.002673347946256399, 0.0029096975922584534, 0.003146047703921795, 0.0033823975827544928, 0.0036187476944178343, 0.003855097573250532, 0.004091447684913874, 0.004327797796577215, 0.004564147908240557, 0.004800498019903898, 0.00503684813156724, 0.005273198243230581, 0.0055095478892326355, 0.005745898000895977, 0.0059822481125593185, 0.00621859822422266, 0.006454948335886002, 0.006691298447549343, 0.006927648559212685, 0.007163998670876026, 0.007400348782539368, 0.007636698428541422, 0.00787304900586605, 0.008109398186206818, 0.00834574829787016, 0.0085820984095335]}, "gradients/classifier.1.weight": {"_type": "histogram", "values": [1.0, 0.0, 0.0, 2.0, 2.0, 2.0, 2.0, 5.0, 10.0, 10.0, 31.0, 41.0, 75.0, 84.0, 98.0, 122.0, 195.0, 265.0, 414.0, 541.0, 694.0, 1035.0, 1404.0, 2113.0, 3137.0, 4586.0, 7277.0, 12508.0, 22512.0, 57925.0, 193071.0, 43646.0, 20390.0, 11914.0, 7600.0, 5130.0, 3598.0, 2668.0, 1793.0, 1342.0, 914.0, 685.0, 460.0, 395.0, 266.0, 203.0, 121.0, 84.0, 68.0, 49.0, 35.0, 22.0, 17.0, 8.0, 7.0, 6.0, 4.0, 6.0, 0.0, 2.0, 2.0, 1.0, 0.0, 2.0], "bins": [-0.010618598200380802, -0.010268544778227806, -0.009918492287397385, -0.009568438865244389, -0.009218385443091393, -0.008868332020938396, -0.008518279530107975, -0.008168226107954979, -0.007818172685801983, -0.007468119729310274, -0.007118066307157278, -0.006768013350665569, -0.006417959928512573, -0.0060679069720208645, -0.005717854015529156, -0.00536780059337616, -0.005017747636884451, -0.004667694680392742, -0.004317641258239746, -0.003967588301748037, -0.0036175348795950413, -0.0032674819231033325, -0.00291742873378098, -0.0025673755444586277, -0.002217322587966919, -0.0018672693986445665, -0.0015172162093222141, -0.0011671631364151835, -0.0008171099470928311, -0.0004670567577704787, -0.00011700368486344814, 0.00023304950445890427, 0.0005831029266119003, 0.0009331561159342527, 0.0012832093052566051, 0.0016332623781636357, 0.00198331568390131, 0.0023333686403930187, 0.002683421829715371, 0.0030334750190377235, 0.0033835284411907196, 0.003733581630513072, 0.004083634819835424, 0.004433687776327133, 0.004783741198480129, 0.005133794154971838, 0.005483847111463547, 0.005833900533616543, 0.006183953490108252, 0.00653400644659996, 0.006884059868752956, 0.007234112825244665, 0.007584166247397661, 0.00793421920388937, 0.008284272626042366, 0.008634325116872787, 0.008984378539025784, 0.00933443196117878, 0.009684484452009201, 0.010034537874162197, 0.010384591296315193, 0.01073464471846819, 0.01108469720929861, 0.011434750631451607, 0.011784804053604603]}, "gradients/backbone.6.weight": {"_type": "histogram", "values": [1.0, 0.0, 0.0, 2.0, 3.0, 1.0, 0.0, 0.0, 2.0, 1.0, 0.0, 0.0, 4.0, 1.0, 4.0, 5.0, 2.0, 5.0, 2.0, 1.0, 6.0, 7.0, 5.0, 6.0, 10.0, 14.0, 11.0, 21.0, 25.0, 42.0, 60.0, 73.0, 180.0, 355.0, 88.0, 33.0, 37.0, 22.0, 14.0, 18.0, 11.0, 14.0, 6.0, 7.0, 1.0, 6.0, 5.0, 5.0, 5.0, 8.0, 5.0, 6.0, 1.0, 1.0, 2.0, 2.0, 1.0, 1.0, 0.0, 2.0, 0.0, 0.0, 0.0, 2.0], "bins": [-0.26397019624710083, -0.256018728017807, -0.24806727468967438, -0.24011580646038055, -0.23216433823108673, -0.2242128849029541, -0.21626141667366028, -0.20830994844436646, -0.20035848021507263, -0.1924070119857788, -0.18445555865764618, -0.17650409042835236, -0.16855262219905853, -0.1606011688709259, -0.15264970064163208, -0.14469823241233826, -0.13674677908420563, -0.1287953108549118, -0.12084385007619858, -0.11289238929748535, -0.10494092106819153, -0.0969894602894783, -0.08903799951076508, -0.08108653128147125, -0.07313507795333862, -0.0651836171746254, -0.057232148945331573, -0.04928068816661835, -0.04132922366261482, -0.0333777591586113, -0.02542629837989807, -0.017474833875894547, -0.009523361921310425, -0.0015718983486294746, 0.0063795652240514755, 0.014331027865409851, 0.022282492369413376, 0.0302339568734169, 0.03818541765213013, 0.04613688215613365, 0.05408835411071777, 0.0620398186147213, 0.06999128311872482, 0.07794274389743805, 0.08589421212673187, 0.0938456729054451, 0.10179713368415833, 0.10974860191345215, 0.11770005524158478, 0.1256515234708786, 0.13360297679901123, 0.14155444502830505, 0.14950591325759888, 0.1574573814868927, 0.16540883481502533, 0.17336030304431915, 0.18131175637245178, 0.1892632246017456, 0.19721467792987823, 0.20516614615917206, 0.21311761438846588, 0.2210690677165985, 0.22902053594589233, 0.23697200417518616, 0.24492347240447998]}, "gradients/backbone.6.bias": {"_type": "histogram", "values": [1.0, 0.0, 0.0, 0.0, 0.0, 0.0, 0.0, 0.0, 0.0, 0.0, 0.0, 0.0, 1.0, 0.0, 0.0, 0.0, 0.0, 0.0, 0.0, 0.0, 0.0, 0.0, 0.0, 0.0, 0.0, 1.0, 0.0, 1.0, 0.0, 0.0, 1.0, 0.0, 0.0, 0.0, 0.0, 0.0, 0.0, 0.0, 0.0, 0.0, 0.0, 0.0, 0.0, 0.0, 0.0, 0.0, 0.0, 0.0, 0.0, 0.0, 0.0, 0.0, 0.0, 0.0, 0.0, 1.0, 0.0, 0.0, 0.0, 0.0, 0.0, 1.0, 0.0, 1.0], "bins": [-0.08326566964387894, -0.08076925575733185, -0.07827283442020416, -0.07577642053365707, -0.07327999919652939, -0.0707835853099823, -0.06828716397285461, -0.06579075008630753, -0.06329433619976044, -0.06079791858792305, -0.05830150097608566, -0.055805083364248276, -0.05330866575241089, -0.0508122518658638, -0.04831583425402641, -0.045819416642189026, -0.04332299530506134, -0.04082657769322395, -0.038330160081386566, -0.03583374246954918, -0.03333732485771179, -0.030840909108519554, -0.028344493359327316, -0.02584807574748993, -0.023351658135652542, -0.020855240523815155, -0.018358822911977768, -0.01586240716278553, -0.013365989550948143, -0.010869571939110756, -0.008373155258595943, -0.005876738578081131, -0.003380320966243744, -0.0008839038200676441, 0.0016125133261084557, 0.0041089304722845554, 0.006605347618460655, 0.009101765230298042, 0.011598181910812855, 0.014094598591327667, 0.016591016203165054, 0.01908743381500244, 0.02158385142683983, 0.024080267176032066, 0.026576684787869453, 0.02907310239970684, 0.03156951814889908, 0.034065935760736465, 0.03656235337257385, 0.03905877098441124, 0.04155518859624863, 0.044051606208086014, 0.0465480238199234, 0.04904443770647049, 0.05154085531830788, 0.054037272930145264, 0.05653369054198265, 0.05903010815382004, 0.061526525765657425, 0.06402294337749481, 0.0665193572640419, 0.06901577860116959, 0.07151219248771667, 0.07400861382484436, 0.07650502771139145]}, "gradients/backbone.4.weight": {"_type": "histogram", "values": [1.0, 0.0, 2.0, 0.0, 0.0, 3.0, 2.0, 1.0, 5.0, 4.0, 4.0, 5.0, 12.0, 12.0, 12.0, 9.0, 16.0, 10.0, 22.0, 28.0, 23.0, 32.0, 40.0, 44.0, 53.0, 98.0, 124.0, 132.0, 184.0, 301.0, 1696.0, 564.0, 211.0, 167.0, 109.0, 99.0, 95.0, 55.0, 64.0, 67.0, 45.0, 46.0, 30.0, 33.0, 23.0, 21.0, 19.0, 22.0, 14.0, 15.0, 8.0, 6.0, 5.0, 4.0, 3.0, 2.0, 2.0, 1.0, 2.0, 0.0, 0.0, 0.0, 0.0, 1.0], "bins": [-0.06774395704269409, -0.06555052101612091, -0.06335708498954773, -0.06116365268826485, -0.058970216661691666, -0.056776780635118484, -0.0545833483338356, -0.05238991230726242, -0.05019647628068924, -0.04800304025411606, -0.04580960422754288, -0.043616171926259995, -0.04142273589968681, -0.03922929987311363, -0.03703586757183075, -0.03484243154525757, -0.03264899551868439, -0.030455559492111206, -0.028262125328183174, -0.026068691164255142, -0.02387525513768196, -0.02168181911110878, -0.019488384947180748, -0.017294950783252716, -0.015101514756679535, -0.012908079661428928, -0.010714644566178322, -0.008521209470927715, -0.006327774375677109, -0.004134339280426502, -0.0019409041851758957, 0.00025253091007471085, 0.0024459585547447205, 0.004639393649995327, 0.0068328287452459335, 0.00902626384049654, 0.011219698935747147, 0.013413134030997753, 0.01560656912624836, 0.01780000329017639, 0.019993439316749573, 0.022186875343322754, 0.024380309507250786, 0.026573743671178818, 0.028767179697752, 0.03096061572432518, 0.03315404802560806, 0.035347484052181244, 0.037540920078754425, 0.039734356105327606, 0.04192779213190079, 0.04412122443318367, 0.04631466045975685, 0.04850809648633003, 0.050701528787612915, 0.052894964814186096, 0.05508840084075928, 0.05728183686733246, 0.05947527289390564, 0.06166870519518852, 0.063862144947052, 0.06605557352304459, 0.06824900954961777, 0.07044244557619095, 0.07263588160276413]}, "gradients/backbone.4.bias": {"_type": "histogram", "values": [2.0, 0.0, 0.0, 0.0, 0.0, 0.0, 0.0, 0.0, 0.0, 0.0, 0.0, 0.0, 1.0, 0.0, 0.0, 0.0, 1.0, 0.0, 1.0, 2.0, 1.0, 1.0, 0.0, 0.0, 1.0, 0.0, 1.0, 0.0, 1.0, 0.0, 0.0, 0.0, 0.0, 0.0, 0.0, 0.0, 0.0, 0.0, 0.0, 1.0, 0.0, 0.0, 0.0, 1.0, 0.0, 0.0, 0.0, 0.0, 0.0, 0.0, 0.0, 0.0, 0.0, 0.0, 0.0, 0.0, 0.0, 1.0, 0.0, 0.0, 0.0, 0.0, 0.0, 1.0], "bins": [-0.021012723445892334, -0.020126327872276306, -0.019239934161305428, -0.0183535385876894, -0.01746714487671852, -0.016580749303102493, -0.015694353729486465, -0.014807959087193012, -0.013921564444899559, -0.013035169802606106, -0.012148775160312653, -0.011262379586696625, -0.010375984944403172, -0.009489590302109718, -0.00860319472849369, -0.007716800086200237, -0.006830405443906784, -0.005944010801613331, -0.00505761569365859, -0.00417122058570385, -0.0032848259434103966, -0.0023984313011169434, -0.0015120361931622028, -0.0006256410852074623, 0.0002607535570859909, 0.0011471484322100878, 0.0020335433073341846, 0.0029199381824582815, 0.0038063330575823784, 0.004692727699875832, 0.005579122807830572, 0.006465517915785313, 0.007351912558078766, 0.008238307200372219, 0.009124701842665672, 0.0100110974162817, 0.010897492058575153, 0.011783886700868607, 0.012670282274484634, 0.013556676916778088, 0.01444307155907154, 0.015329466201364994, 0.016215860843658447, 0.017102256417274475, 0.017988651990890503, 0.01887504570186138, 0.01976144127547741, 0.020647834986448288, 0.021534230560064316, 0.022420626133680344, 0.023307019844651222, 0.02419341541826725, 0.02507980912923813, 0.025966204702854156, 0.026852600276470184, 0.027738995850086212, 0.02862538956105709, 0.02951178513467312, 0.030398178845643997, 0.031284574419260025, 0.03217096999287605, 0.03305736184120178, 0.03394375741481781, 0.03483015298843384, 0.035716548562049866]}, "gradients/backbone.2.weight": {"_type": "histogram", "values": [1.0, 1.0, 1.0, 2.0, 3.0, 2.0, 4.0, 10.0, 7.0, 12.0, 23.0, 29.0, 32.0, 47.0, 60.0, 74.0, 70.0, 93.0, 144.0, 172.0, 232.0, 338.0, 414.0, 561.0, 935.0, 1278.0, 2334.0, 7059.0, 1157.0, 787.0, 567.0, 420.0, 318.0, 242.0, 197.0, 174.0, 132.0, 105.0, 95.0, 47.0, 42.0, 32.0, 36.0, 34.0, 15.0, 14.0, 17.0, 16.0, 6.0, 6.0, 3.0, 6.0, 6.0, 3.0, 7.0, 2.0, 2.0, 3.0, 0.0, 1.0, 0.0, 1.0, 0.0, 1.0], "bins": [-0.015616926364600658, -0.015041305683553219, -0.01446568500250578, -0.013890065252780914, -0.013314444571733475, -0.012738823890686035, -0.012163203209638596, -0.011587582528591156, -0.011011961847543716, -0.010436341166496277, -0.009860720485448837, -0.009285099804401398, -0.008709480054676533, -0.008133859373629093, -0.007558238692581654, -0.006982618477195501, -0.006406998261809349, -0.0058313775807619095, -0.005255757365375757, -0.004680136684328318, -0.004104516468942165, -0.003528895787894726, -0.0029532751068472862, -0.002377654891461134, -0.001802033744752407, -0.0012264132965356112, -0.0006507927319034934, -7.517216727137566e-05, 0.0005004482809454203, 0.0010760687291622162, 0.0016516894102096558, 0.002227309625595808, 0.0028029289096593857, 0.0033785493578761816, 0.0039541698060929775, 0.004529790487140417, 0.005105410702526569, 0.005681031383574009, 0.0062566520646214485, 0.006832272280007601, 0.007407892495393753, 0.007983513176441193, 0.008559133857488632, 0.009134754538536072, 0.009710374288260937, 0.010285994969308376, 0.010861615650355816, 0.01143723540008068, 0.012012857012450695, 0.012588477693498135, 0.013164098374545574, 0.01373971812427044, 0.014315338805317879, 0.014890959486365318, 0.015466580167412758, 0.016042200848460197, 0.016617821529507637, 0.017193442210555077, 0.017769062891602516, 0.018344683572649956, 0.018920304253697395, 0.019495923072099686, 0.020071543753147125, 0.020647164434194565, 0.021222785115242004]}, "gradients/backbone.2.bias": {"_type": "histogram", "values": [1.0, 1.0, 0.0, 0.0, 0.0, 0.0, 0.0, 0.0, 1.0, 0.0, 0.0, 1.0, 0.0, 0.0, 2.0, 1.0, 0.0, 1.0, 0.0, 1.0, 1.0, 1.0, 0.0, 0.0, 1.0, 1.0, 8.0, 1.0, 0.0, 0.0, 1.0, 0.0, 0.0, 1.0, 0.0, 0.0, 0.0, 0.0, 1.0, 1.0, 0.0, 0.0, 0.0, 0.0, 1.0, 1.0, 1.0, 0.0, 1.0, 0.0, 0.0, 0.0, 0.0, 0.0, 1.0, 0.0, 0.0, 0.0, 0.0, 0.0, 0.0, 0.0, 0.0, 1.0], "bins": [-0.018038799986243248, -0.01735999993979931, -0.01668119989335537, -0.01600240170955658, -0.01532360166311264, -0.014644801616668701, -0.013966001570224762, -0.013287201523780823, -0.012608402408659458, -0.011929602362215519, -0.011250803247094154, -0.010572003200650215, -0.009893203154206276, -0.009214404039084911, -0.008535603992640972, -0.007856804877519608, -0.007178004831075668, -0.0064992052502930164, -0.0058204056695103645, -0.005141605623066425, -0.004462806042283773, -0.0037840064615011215, -0.0031052064150571823, -0.0024264068342745304, -0.001747606322169304, -0.0010688066249713302, -0.00039000692777335644, 0.0002887928858399391, 0.000967592466622591, 0.001646392047405243, 0.002325192093849182, 0.003003991674631834, 0.0036827921867370605, 0.0043615917675197124, 0.005040391348302364, 0.0057191913947463036, 0.0063979909755289555, 0.007076790556311607, 0.007755590602755547, 0.008434390649199486, 0.009113188832998276, 0.009791988879442215, 0.01047078799456358, 0.011149588041007519, 0.011828387156128883, 0.012507187202572823, 0.013185987249016762, 0.013864787295460701, 0.01454358734190464, 0.01522238738834858, 0.01590118743479252, 0.01657998561859131, 0.017258785665035248, 0.017937585711479187, 0.018616385757923126, 0.019295185804367065, 0.019973985850811005, 0.020652785897254944, 0.021331585943698883, 0.022010385990142822, 0.022689184173941612, 0.02336798422038555, 0.02404678426682949, 0.02472558431327343, 0.02540438249707222]}, "gradients/backbone.0.weight": {"_type": "histogram", "values": [3.0, 2.0, 0.0, 1.0, 1.0, 4.0, 1.0, 1.0, 1.0, 2.0, 3.0, 4.0, 5.0, 2.0, 3.0, 7.0, 11.0, 7.0, 11.0, 13.0, 25.0, 30.0, 32.0, 37.0, 47.0, 73.0, 39.0, 41.0, 26.0, 30.0, 24.0, 24.0, 18.0, 8.0, 9.0, 2.0, 2.0, 0.0, 0.0, 5.0, 4.0, 3.0, 0.0, 2.0, 0.0, 2.0, 1.0, 0.0, 1.0, 2.0, 1.0, 0.0, 0.0, 0.0, 1.0, 1.0, 1.0, 1.0, 0.0, 0.0, 1.0, 0.0, 0.0, 1.0], "bins": [-0.02707468904554844, -0.026022212579846382, -0.024969737976789474, -0.023917261511087418, -0.02286478504538536, -0.021812308579683304, -0.020759833976626396, -0.01970735751092434, -0.01865488290786743, -0.017602406442165375, -0.016549931839108467, -0.01549745537340641, -0.014444978907704353, -0.013392503373324871, -0.012340027838945389, -0.011287551373243332, -0.010235074907541275, -0.009182599373161793, -0.008130122907459736, -0.007077647373080254, -0.006025171373039484, -0.0049726953729987144, -0.003920219838619232, -0.0028677438385784626, -0.0018152687698602676, -0.0007627928862348199, 0.00028968299739062786, 0.0013421587646007538, 0.0023946347646415234, 0.003447110764682293, 0.004499586299061775, 0.005552062299102545, 0.00660453736782074, 0.007657013367861509, 0.008709489367902279, 0.009761964902281761, 0.010814441367983818, 0.0118669169023633, 0.012919392436742783, 0.01397186890244484, 0.015024345368146896, 0.016076821833848953, 0.01712929643690586, 0.018181772902607918, 0.019234249368309975, 0.020286723971366882, 0.02133920043706894, 0.022391676902770996, 0.023444151505827904, 0.02449662797152996, 0.02554910257458687, 0.026601579040288925, 0.027654055505990982, 0.02870653197169304, 0.029759006574749947, 0.030811483040452003, 0.03186395764350891, 0.03291643410921097, 0.033968910574913025, 0.03502138704061508, 0.03607385978102684, 0.0371263362467289, 0.038178812712430954, 0.03923128917813301, 0.04028376564383507]}, "gradients/backbone.0.bias": {"_type": "histogram", "values": [1.0, 0.0, 3.0, 0.0, 1.0, 1.0, 0.0, 1.0, 1.0, 0.0, 3.0, 2.0, 1.0, 2.0, 1.0, 2.0, 1.0, 2.0, 3.0, 5.0, 5.0, 2.0, 2.0, 1.0, 5.0, 4.0, 1.0, 2.0, 0.0, 0.0, 0.0, 4.0, 0.0, 3.0, 0.0, 0.0, 0.0, 0.0, 0.0, 0.0, 1.0, 0.0, 0.0, 1.0, 0.0, 1.0, 0.0, 0.0, 0.0, 0.0, 0.0, 1.0, 0.0, 0.0, 0.0, 0.0, 0.0, 0.0, 0.0, 0.0, 0.0, 0.0, 0.0, 1.0], "bins": [-0.034239206463098526, -0.03259289264678955, -0.030946578830480576, -0.0293002650141716, -0.027653951197862625, -0.02600763738155365, -0.024361321702599525, -0.02271500788629055, -0.021068694069981575, -0.0194223802536726, -0.017776066437363625, -0.0161297507584095, -0.0144834378734231, -0.012837124057114124, -0.011190809309482574, -0.0095444954931736, -0.007898181676864624, -0.006251867860555649, -0.004605553578585386, -0.0029592392966151237, -0.0013129254803061485, 0.0003333883360028267, 0.0019797030836343765, 0.0036260168999433517, 0.005272332578897476, 0.006918646395206451, 0.008564960211515427, 0.010211274959146976, 0.011857588775455952, 0.013503902591764927, 0.015150217339396477, 0.016796531155705452, 0.01844283938407898, 0.020089153200387955, 0.02173546701669693, 0.023381780833005905, 0.02502809464931488, 0.026674408465623856, 0.02832072414457798, 0.029967037960886955, 0.03161334991455078, 0.033259663730859756, 0.03490597754716873, 0.03655229136347771, 0.03819860517978668, 0.03984491899609566, 0.04149123281240463, 0.043137550354003906, 0.04478386417031288, 0.04643017798662186, 0.04807649180293083, 0.04972280561923981, 0.05136911943554878, 0.05301543325185776, 0.05466175079345703, 0.05630806088447571, 0.05795437842607498, 0.05960069224238396, 0.06124700605869293, 0.0628933236002922, 0.06453963369131088, 0.06618595123291016, 0.06783226132392883, 0.0694785788655281, 0.07112488895654678]}, "_wandb": {"runtime": 194}}