{"loss": 0.24772575497627258, "_timestamp": 1673608872.9491751, "_runtime": 84.53852200508118, "_step": 151, "gradients/classifier.3.bias": {"_type": "histogram", "values": [1.0, 0.0, 0.0, 0.0, 0.0, 0.0, 0.0, 0.0, 0.0, 0.0, 0.0, 0.0, 0.0, 0.0, 1.0, 1.0, 0.0, 0.0, 0.0, 0.0, 0.0, 0.0, 0.0, 0.0, 1.0, 0.0, 0.0, 0.0, 0.0, 0.0, 0.0, 1.0, 1.0, 0.0, 0.0, 0.0, 0.0, 0.0, 0.0, 0.0, 0.0, 0.0, 0.0, 0.0, 0.0, 0.0, 0.0, 0.0, 1.0, 0.0, 1.0, 0.0, 0.0, 0.0, 0.0, 0.0, 1.0, 0.0, 0.0, 0.0, 0.0, 0.0, 0.0, 1.0], "bins": [-0.01838579587638378, -0.017843076959252357, -0.017300356179475784, -0.01675763726234436, -0.016214918345212936, -0.015672197565436363, -0.01512947864830494, -0.01458675879985094, -0.014044038951396942, -0.013501319102942944, -0.01295860018581152, -0.012415880337357521, -0.011873160488903522, -0.011330440640449524, -0.0107877217233181, -0.010245001874864101, -0.009702282957732677, -0.009159563109278679, -0.008616844192147255, -0.008074124343693256, -0.007531404495239258, -0.0069886851124465466, -0.006445965729653835, -0.005903245881199837, -0.005360526964068413, -0.0048178075812757015, -0.004275087732821703, -0.0037323683500289917, -0.003189648734405637, -0.002646929118782282, -0.0021042097359895706, -0.0015614901203662157, -0.0010187700390815735, -0.0004760504816658795, 6.666907574981451e-05, 0.0006093885749578476, 0.0011521081905812025, 0.0016948278062045574, 0.0022375471889972687, 0.0027802668046206236, 0.003322986885905266, 0.0038657065015286207, 0.004408426117151976, 0.004951145499944687, 0.0054938653483986855, 0.006036584731191397, 0.006579304113984108, 0.0071220239624381065, 0.0076647428795695305, 0.008207462728023529, 0.008750181645154953, 0.009292901493608952, 0.00983562134206295, 0.010378340259194374, 0.010921060107648373, 0.011463779956102371, 0.012006498873233795, 0.012549218721687794, 0.013091937638819218, 0.013634657487273216, 0.014177377335727215, 0.014720097184181213, 0.015262816101312637, 0.01580553501844406, 0.016348255798220634]}, "gradients/classifier.3.weight": {"_type": "histogram", "values": [1.0, 0.0, 0.0, 1.0, 0.0, 0.0, 0.0, 0.0, 0.0, 0.0, 0.0, 0.0, 3.0, 1.0, 1.0, 0.0, 2.0, 1.0, 5.0, 1.0, 3.0, 5.0, 9.0, 9.0, 13.0, 14.0, 12.0, 17.0, 25.0, 38.0, 60.0, 53.0, 92.0, 99.0, 125.0, 133.0, 107.0, 88.0, 74.0, 67.0, 46.0, 34.0, 32.0, 24.0, 16.0, 15.0, 18.0, 5.0, 7.0, 3.0, 4.0, 3.0, 3.0, 0.0, 2.0, 2.0, 4.0, 0.0, 0.0, 1.0, 1.0, 0.0, 0.0, 1.0], "bins": [-0.17598000168800354, -0.1710212677717209, -0.16606253385543823, -0.16110381484031677, -0.15614508092403412, -0.15118634700775146, -0.14622762799263, -0.14126889407634735, -0.1363101601600647, -0.13135142624378204, -0.1263926923274994, -0.12143397331237793, -0.11647523939609528, -0.11151650547981262, -0.10655777901411057, -0.10159905254840851, -0.09664031863212585, -0.0916815847158432, -0.08672285825014114, -0.08176413178443909, -0.07680539786815643, -0.07184666395187378, -0.06688793748617172, -0.06192920729517937, -0.05697047710418701, -0.052011746913194656, -0.0470530167222023, -0.042094286531209946, -0.03713555634021759, -0.032176826149225235, -0.02721809595823288, -0.022259365767240524, -0.017300620675086975, -0.01234189048409462, -0.007383160293102264, -0.002424430102109909, 0.0025343000888824463, 0.007493030279874802, 0.012451760470867157, 0.017410490661859512, 0.022369220852851868, 0.027327951043844223, 0.03228668123483658, 0.037245411425828934, 0.04220414161682129, 0.047162871807813644, 0.052121601998806, 0.057080332189798355, 0.06203906238079071, 0.06699779629707336, 0.07195652276277542, 0.07691524922847748, 0.08187398314476013, 0.08683271706104279, 0.09179144352674484, 0.0967501699924469, 0.10170890390872955, 0.10666763782501221, 0.11162636429071426, 0.11658509075641632, 0.12154382467269897, 0.12650255858898163, 0.13146129250526428, 0.13642001152038574, 0.1413787454366684]}, "gradients/classifier.1.bias": {"_type": "histogram", "values": [1.0, 1.0, 0.0, 0.0, 1.0, 3.0, 1.0, 1.0, 1.0, 0.0, 0.0, 3.0, 3.0, 3.0, 3.0, 0.0, 6.0, 3.0, 1.0, 1.0, 4.0, 6.0, 6.0, 6.0, 4.0, 3.0, 5.0, 6.0, 4.0, 3.0, 4.0, 5.0, 4.0, 5.0, 2.0, 3.0, 3.0, 2.0, 1.0, 2.0, 4.0, 1.0, 2.0, 0.0, 0.0, 2.0, 1.0, 2.0, 1.0, 0.0, 2.0, 1.0, 0.0, 0.0, 0.0, 1.0, 0.0, 0.0, 0.0, 0.0, 0.0, 0.0, 0.0, 1.0], "bins": [-0.007489751558750868, -0.007210064213722944, -0.006930376868695021, -0.006650689523667097, -0.0063710021786391735, -0.00609131483361125, -0.005811627022922039, -0.0055319396778941154, -0.005252252332866192, -0.004972564987838268, -0.004692877642810345, -0.004413190297782421, -0.0041335029527544975, -0.003853815607726574, -0.0035741280298680067, -0.003294440684840083, -0.003014753572642803, -0.0027350662276148796, -0.002455378882586956, -0.0021756915375590324, -0.001896004076115787, -0.0016163167310878634, -0.001336629269644618, -0.0010569419246166945, -0.0007772543467581272, -0.0004975670017302036, -0.00021787959849461913, 6.180780474096537e-05, 0.00034149514976888895, 0.0006211824947968125, 0.0009008699562400579, 0.0011805573012679815, 0.0014602448791265488, 0.0017399322241544724, 0.002019619569182396, 0.0022993069142103195, 0.002578994259238243, 0.0028586816042661667, 0.003138369182124734, 0.0034180565271526575, 0.0036977436393499374, 0.003977430984377861, 0.004257118329405785, 0.004536805674433708, 0.004816493019461632, 0.005096180364489555, 0.005375867709517479, 0.0056555550545454025, 0.005935242865234613, 0.006214930210262537, 0.006494617555290461, 0.006774304900318384, 0.007053992245346308, 0.007333679590374231, 0.007613367401063442, 0.007893054746091366, 0.00817274209111929, 0.008452429436147213, 0.008732116781175137, 0.00901180412620306, 0.009291491471230984, 0.009571178816258907, 0.009850866161286831, 0.010130553506314754, 0.010410240851342678]}, "gradients/classifier.1.weight": {"_type": "histogram", "values": [1.0, 4.0, 1.0, 1.0, 6.0, 9.0, 12.0, 14.0, 19.0, 25.0, 39.0, 60.0, 67.0, 101.0, 98.0, 148.0, 172.0, 264.0, 366.0, 483.0, 710.0, 983.0, 1445.0, 2129.0, 3154.0, 4908.0, 7870.0, 12574.0, 20234.0, 33752.0, 171863.0, 65674.0, 30300.0, 18360.0, 11373.0, 6845.0, 4643.0, 3138.0, 2106.0, 1401.0, 1092.0, 823.0, 587.0, 444.0, 324.0, 259.0, 195.0, 146.0, 79.0, 69.0, 59.0, 52.0, 24.0, 23.0, 12.0, 8.0, 15.0, 9.0, 11.0, 4.0, 7.0, 3.0, 1.0, 2.0], "bins": [-0.014024116098880768, -0.013570410199463367, -0.013116703368723392, -0.012662997469305992, -0.012209291569888592, -0.011755585670471191, -0.011301878839731216, -0.010848172940313816, -0.010394467040896416, -0.009940761141479015, -0.00948705431073904, -0.00903334841132164, -0.00857964251190424, -0.00812593661248684, -0.007672229781746864, -0.007218523882329464, -0.006764817051589489, -0.006311110686510801, -0.005857404787093401, -0.005403698422014713, -0.004949992522597313, -0.004496286157518625, -0.004042579792439938, -0.0035888736601918936, -0.0031351670622825623, -0.0026814609300345182, -0.0022277547977864742, -0.0017740484327077866, -0.0013203423004597425, -0.0008666361682116985, -0.00041292980313301086, 4.077632911503315e-05, 0.0004944810643792152, 0.0009481872548349202, 0.001401893445290625, 0.001855599693953991, 0.002309305826202035, 0.002763011958450079, 0.0032167183235287666, 0.0036704244557768106, 0.004124130122363567, 0.004577836487442255, 0.005031542386859655, 0.005485248751938343, 0.005938954651355743, 0.006392661016434431, 0.006846367381513119, 0.007300073280930519, 0.007753780111670494, 0.008207486011087894, 0.00866119284182787, 0.00911489874124527, 0.00956860464066267, 0.01002231054008007, 0.010476017370820045, 0.010929723270237446, 0.011383429169654846, 0.011837135069072247, 0.012290841899812222, 0.012744547799229622, 0.013198253698647022, 0.013651959598064423, 0.014105666428804398, 0.014559372328221798, 0.015013079158961773]}, "gradients/backbone.6.weight": {"_type": "histogram", "values": [2.0, 0.0, 1.0, 0.0, 0.0, 2.0, 0.0, 1.0, 0.0, 0.0, 2.0, 0.0, 1.0, 1.0, 2.0, 3.0, 7.0, 4.0, 7.0, 4.0, 5.0, 10.0, 7.0, 20.0, 30.0, 43.0, 344.0, 243.0, 68.0, 60.0, 70.0, 30.0, 32.0, 25.0, 23.0, 20.0, 16.0, 7.0, 4.0, 3.0, 4.0, 7.0, 7.0, 5.0, 3.0, 2.0, 4.0, 2.0, 4.0, 1.0, 1.0, 2.0, 0.0, 2.0, 1.0, 2.0, 2.0, 1.0, 1.0, 0.0, 1.0, 1.0, 1.0, 1.0], "bins": [-0.1411341428756714, -0.13589222729206085, -0.1306503266096115, -0.12540841102600098, -0.12016651034355164, -0.1149245947599411, -0.10968268662691116, -0.10444077849388123, -0.09919887036085129, -0.09395696222782135, -0.08871505409479141, -0.08347314596176147, -0.07823123037815094, -0.0729893296957016, -0.06774741411209106, -0.06250550597906113, -0.05726359784603119, -0.05202168971300125, -0.046779781579971313, -0.04153786972165108, -0.03629596158862114, -0.031054053455591202, -0.025812141597270966, -0.020570233464241028, -0.015328317880630493, -0.01008640881627798, -0.0048444997519254684, 0.00039741024374961853, 0.005639318376779556, 0.010881226509809494, 0.01612313836812973, 0.021365046501159668, 0.026606962084770203, 0.03184887021780014, 0.03709077835083008, 0.042332690209150314, 0.04757459834218025, 0.05281650647521019, 0.058058418333530426, 0.06330032646656036, 0.0685422271490097, 0.07378413528203964, 0.07902604341506958, 0.08426795899868011, 0.08950985968112946, 0.09475177526473999, 0.09999368339776993, 0.10523559153079987, 0.1104775071144104, 0.11571941524744034, 0.12096132338047028, 0.1262032389640808, 0.13144513964653015, 0.13668705523014069, 0.14192897081375122, 0.14717087149620056, 0.1524127721786499, 0.15765468776226044, 0.16289658844470978, 0.1681385040283203, 0.17338040471076965, 0.1786223202943802, 0.18386423587799072, 0.18910613656044006, 0.1943480521440506]}, "gradients/backbone.6.bias": {"_type": "histogram", "values": [1.0, 0.0, 0.0, 0.0, 0.0, 0.0, 0.0, 0.0, 0.0, 0.0, 0.0, 0.0, 0.0, 0.0, 0.0, 0.0, 0.0, 0.0, 0.0, 0.0, 0.0, 0.0, 0.0, 0.0, 1.0, 0.0, 1.0, 0.0, 0.0, 0.0, 0.0, 0.0, 1.0, 0.0, 0.0, 0.0, 1.0, 0.0, 0.0, 0.0, 0.0, 0.0, 0.0, 0.0, 0.0, 0.0, 0.0, 0.0, 0.0, 0.0, 0.0, 0.0, 2.0, 0.0, 0.0, 0.0, 0.0, 0.0, 0.0, 0.0, 0.0, 0.0, 0.0, 1.0], "bins": [-0.04020491614937782, -0.038436487317085266, -0.03666806221008301, -0.03489963337779045, -0.03313120827078819, -0.031362779438495636, -0.02959435246884823, -0.02782592549920082, -0.026057498529553413, -0.024289071559906006, -0.0225206445902586, -0.02075221762061119, -0.018983788788318634, -0.017215363681316376, -0.015446934849023819, -0.013678507879376411, -0.011910080909729004, -0.010141653940081596, -0.008373226970434189, -0.006604799069464207, -0.004836372099816799, -0.0030679451301693916, -0.0012995172291994095, 0.00046890974044799805, 0.002237338572740555, 0.004005765542387962, 0.005774192977696657, 0.007542620413005352, 0.00931104738265276, 0.011079474352300167, 0.01284790225327015, 0.014616329222917557, 0.016384758055210114, 0.01815318502485752, 0.01992161199450493, 0.021690040826797485, 0.023458465933799744, 0.0252268947660923, 0.026995321735739708, 0.028763748705387115, 0.030532173812389374, 0.03230060264468193, 0.03406902775168419, 0.035837456583976746, 0.037605881690979004, 0.03937431052327156, 0.04114273935556412, 0.042911164462566376, 0.04467959329485893, 0.04644802212715149, 0.04821644723415375, 0.049984876066446304, 0.05175330117344856, 0.05352173000574112, 0.05529015511274338, 0.057058583945035934, 0.05882701277732849, 0.06059544160962105, 0.062363866716623306, 0.06413229554891586, 0.06590072065591812, 0.06766914576292038, 0.06943757832050323, 0.0712060034275055, 0.07297442853450775]}, "gradients/backbone.4.weight": {"_type": "histogram", "values": [1.0, 1.0, 3.0, 5.0, 4.0, 3.0, 0.0, 2.0, 4.0, 3.0, 7.0, 8.0, 12.0, 10.0, 8.0, 14.0, 20.0, 12.0, 20.0, 25.0, 32.0, 28.0, 43.0, 45.0, 74.0, 106.0, 140.0, 185.0, 222.0, 248.0, 1663.0, 251.0, 215.0, 156.0, 114.0, 129.0, 103.0, 92.0, 73.0, 66.0, 68.0, 74.0, 66.0, 49.0, 37.0, 31.0, 26.0, 14.0, 22.0, 12.0, 6.0, 10.0, 14.0, 9.0, 4.0, 3.0, 2.0, 2.0, 5.0, 3.0, 1.0, 2.0, 0.0, 1.0], "bins": [-0.040927354246377945, -0.03959648683667183, -0.038265615701675415, -0.0369347482919693, -0.035603880882263184, -0.03427301347255707, -0.032942142337560654, -0.03161127492785454, -0.030280405655503273, -0.028949536383152008, -0.027618668973445892, -0.026287799701094627, -0.024956930428743362, -0.023626063019037247, -0.022295193746685982, -0.020964324474334717, -0.0196334570646286, -0.018302587792277336, -0.01697172038257122, -0.015640851110219955, -0.014309982769191265, -0.012979114428162575, -0.01164824515581131, -0.01031737681478262, -0.00898650661110878, -0.00765563827008009, -0.006324769463390112, -0.004993900656700134, -0.003663032315671444, -0.0023321639746427536, -0.0010012947022914886, 0.0003295736387372017, 0.0016604363918304443, 0.0029913049656897783, 0.004322173539549112, 0.00565304234623909, 0.00698391068726778, 0.00831477902829647, 0.009645648300647736, 0.010976516641676426, 0.012307383120059967, 0.013638251461088657, 0.014969119802117348, 0.016299989074468613, 0.01763085648417473, 0.018961725756525993, 0.02029259502887726, 0.021623462438583374, 0.022954333573579788, 0.024285202845931053, 0.02561607025563717, 0.026946939527988434, 0.02827780693769455, 0.029608676210045815, 0.03093954548239708, 0.032270412892103195, 0.03360128402709961, 0.034932151436805725, 0.03626302257180214, 0.037593889981508255, 0.03892475739121437, 0.040255628526210785, 0.0415864959359169, 0.042917363345623016, 0.04424823075532913]}, "gradients/backbone.4.bias": {"_type": "histogram", "values": [1.0, 0.0, 0.0, 0.0, 0.0, 0.0, 0.0, 0.0, 0.0, 0.0, 0.0, 0.0, 0.0, 0.0, 0.0, 1.0, 0.0, 1.0, 1.0, 0.0, 1.0, 0.0, 0.0, 0.0, 0.0, 0.0, 3.0, 0.0, 0.0, 0.0, 1.0, 1.0, 0.0, 0.0, 2.0, 0.0, 0.0, 0.0, 0.0, 0.0, 0.0, 0.0, 0.0, 0.0, 0.0, 0.0, 0.0, 0.0, 0.0, 0.0, 0.0, 1.0, 1.0, 0.0, 1.0, 0.0, 0.0, 0.0, 0.0, 0.0, 0.0, 0.0, 0.0, 1.0], "bins": [-0.034606676548719406, -0.03331347182393074, -0.032020267099142075, -0.03072706237435341, -0.029433857649564743, -0.028140652924776077, -0.02684745006263256, -0.025554245337843895, -0.02426104061305523, -0.022967835888266563, -0.021674631163477898, -0.020381426438689232, -0.019088223576545715, -0.01779501885175705, -0.016501814126968384, -0.015208609402179718, -0.013915404677391052, -0.012622199952602386, -0.01132899522781372, -0.01003579143434763, -0.008742586709558964, -0.007449381984770298, -0.0061561777256429195, -0.004862973466515541, -0.0035697687417268753, -0.002276564249768853, -0.000983359757810831, 0.00030984473414719105, 0.0016030492261052132, 0.002896253950893879, 0.004189458210021257, 0.005482662469148636, 0.006775867193937302, 0.008069071918725967, 0.009362276643514633, 0.010655480436980724, 0.01194868516176939, 0.013241889886558056, 0.014535093680024147, 0.015828298404812813, 0.01712150312960148, 0.018414707854390144, 0.01970791257917881, 0.021001117303967476, 0.022294320166110992, 0.023587524890899658, 0.024880729615688324, 0.02617393434047699, 0.027467139065265656, 0.02876034379005432, 0.030053548514842987, 0.03134675323963165, 0.03263995796442032, 0.033933162689208984, 0.03522636741399765, 0.036519572138786316, 0.03781277686357498, 0.03910598158836365, 0.04039918631315231, 0.04169239103794098, 0.042985595762729645, 0.04427880048751831, 0.045572005212306976, 0.04686520993709564, 0.04815841093659401]}, "gradients/backbone.2.weight": {"_type": "histogram", "values": [1.0, 0.0, 0.0, 2.0, 0.0, 3.0, 1.0, 3.0, 3.0, 5.0, 5.0, 11.0, 9.0, 11.0, 12.0, 12.0, 11.0, 27.0, 27.0, 17.0, 18.0, 28.0, 26.0, 38.0, 52.0, 86.0, 129.0, 219.0, 392.0, 600.0, 771.0, 1241.0, 3418.0, 6388.0, 1396.0, 799.0, 582.0, 420.0, 302.0, 276.0, 202.0, 132.0, 124.0, 102.0, 113.0, 100.0, 92.0, 70.0, 37.0, 28.0, 25.0, 19.0, 11.0, 10.0, 7.0, 6.0, 2.0, 4.0, 1.0, 3.0, 1.0, 1.0, 0.0, 1.0], "bins": [-0.017659233883023262, -0.017125016078352928, -0.016590798273682594, -0.01605658046901226, -0.015522361733019352, -0.014988143928349018, -0.01445392519235611, -0.013919707387685776, -0.013385489583015442, -0.012851271778345108, -0.012317053973674774, -0.011782835237681866, -0.011248617433011532, -0.010714399628341198, -0.01018018089234829, -0.009645963087677956, -0.009111745283007622, -0.008577527478337288, -0.008043309673666954, -0.0075090909376740456, -0.006974873133003712, -0.006440655328333378, -0.005906437058001757, -0.0053722187876701355, -0.004838000982999802, -0.004303783178329468, -0.0037695649079978466, -0.003235346870496869, -0.0027011288329958916, -0.002166910795494914, -0.0016326927579939365, -0.001098474720492959, -0.0005642548203468323, -3.003678284585476e-05, 0.0005041812546551228, 0.0010383992921561003, 0.0015726173296570778, 0.0021068353671580553, 0.002641053404659033, 0.0031752714421600103, 0.003709489479660988, 0.004243707284331322, 0.004777925554662943, 0.005312143824994564, 0.005846361629664898, 0.006380579434335232, 0.006914797704666853, 0.007449015974998474, 0.007983233779668808, 0.008517451584339142, 0.009051669389009476, 0.009585888125002384, 0.010120105929672718, 0.010654323734343052, 0.01118854247033596, 0.011722760275006294, 0.012256978079676628, 0.012791195884346962, 0.013325413689017296, 0.013859632425010204, 0.014393850229680538, 0.014928068034350872, 0.01546228677034378, 0.015996504575014114, 0.016530722379684448]}, "gradients/backbone.2.bias": {"_type": "histogram", "values": [1.0, 0.0, 0.0, 0.0, 0.0, 0.0, 0.0, 0.0, 0.0, 0.0, 0.0, 0.0, 0.0, 0.0, 0.0, 0.0, 0.0, 0.0, 0.0, 0.0, 0.0, 0.0, 0.0, 0.0, 1.0, 0.0, 1.0, 0.0, 2.0, 1.0, 1.0, 3.0, 3.0, 0.0, 0.0, 6.0, 1.0, 0.0, 1.0, 2.0, 2.0, 0.0, 0.0, 0.0, 0.0, 0.0, 0.0, 0.0, 1.0, 0.0, 1.0, 0.0, 0.0, 1.0, 0.0, 0.0, 0.0, 0.0, 1.0, 0.0, 1.0, 0.0, 1.0, 1.0], "bins": [-0.038566336035728455, -0.03748251125216484, -0.03639868646860123, -0.03531486541032791, -0.0342310406267643, -0.033147215843200684, -0.03206339105963707, -0.030979566276073456, -0.029895741492509842, -0.028811916708946228, -0.027728093788027763, -0.02664426900446415, -0.025560444220900536, -0.02447662129998207, -0.023392796516418457, -0.022308971732854843, -0.02122514881193638, -0.020141324028372765, -0.0190575011074543, -0.017973676323890686, -0.016889851540327072, -0.015806026756763458, -0.014722203835844994, -0.01363837905228138, -0.012554556131362915, -0.011470732279121876, -0.010386907495558262, -0.009303083643317223, -0.008219258859753609, -0.007135435007512569, -0.00605161115527153, -0.004967786837369204, -0.003883959725499153, -0.0028001354075968266, -0.0017163113225251436, -0.0006324872374534607, 0.0004513370804488659, 0.0015351613983511925, 0.0026189852505922318, 0.0037028095684945583, 0.0047866348177194595, 0.005870459135621786, 0.006954283453524113, 0.008038107305765152, 0.009121932089328766, 0.010205755941569805, 0.011289579793810844, 0.012373404577374458, 0.013457227498292923, 0.014541051350533962, 0.015624876134097576, 0.016708699986338615, 0.01779252476990223, 0.018876347690820694, 0.019960172474384308, 0.021043997257947922, 0.022127822041511536, 0.02321164682507515, 0.024295469745993614, 0.025379294529557228, 0.026463119313120842, 0.027546942234039307, 0.02863076701760292, 0.029714591801166534, 0.030798414722085]}, "gradients/backbone.0.weight": {"_type": "histogram", "values": [1.0, 1.0, 0.0, 1.0, 0.0, 0.0, 1.0, 1.0, 1.0, 1.0, 1.0, 2.0, 0.0, 0.0, 1.0, 2.0, 0.0, 5.0, 1.0, 6.0, 13.0, 5.0, 8.0, 12.0, 7.0, 18.0, 15.0, 14.0, 11.0, 29.0, 47.0, 72.0, 25.0, 27.0, 31.0, 24.0, 24.0, 23.0, 19.0, 12.0, 14.0, 17.0, 8.0, 9.0, 10.0, 5.0, 4.0, 7.0, 5.0, 3.0, 5.0, 6.0, 2.0, 9.0, 3.0, 2.0, 2.0, 2.0, 0.0, 0.0, 0.0, 0.0, 1.0, 1.0], "bins": [-0.011709582060575485, -0.011332771740853786, -0.010955961421132088, -0.010579152032732964, -0.010202341713011265, -0.009825531393289566, -0.009448721073567867, -0.009071910753846169, -0.008695101365447044, -0.008318291045725346, -0.007941480726003647, -0.007564670871943235, -0.007187861017882824, -0.006811050698161125, -0.006434240378439426, -0.006057430058717728, -0.005680619738996029, -0.00530380941927433, -0.004926999565213919, -0.00455018924549222, -0.0041733793914318085, -0.0037965690717101097, -0.003419758751988411, -0.003042948665097356, -0.0026661381125450134, -0.0022893280256539583, -0.0019125178223475814, -0.0015357076190412045, -0.0011588975321501493, -0.0007820874452590942, -0.0004052771255373955, -2.846703864634037e-05, 0.00034834351390600204, 0.0007251536590047181, 0.001101963804103434, 0.001478774007409811, 0.0018555840943008661, 0.0022323941811919212, 0.00260920450091362, 0.002986014587804675, 0.003362824209034443, 0.003739634295925498, 0.004116444382816553, 0.004493254702538252, 0.004870064556598663, 0.005246874876320362, 0.005623685196042061, 0.00600049551576376, 0.006377305835485458, 0.006754116155207157, 0.007130926009267569, 0.007507736328989267, 0.007884546183049679, 0.008261356502771378, 0.008638166822493076, 0.009014977142214775, 0.0093917865306139, 0.009768596850335598, 0.010145407170057297, 0.010522216558456421, 0.01089902687817812, 0.011275837197899818, 0.011652647517621517, 0.012029457837343216, 0.012406268157064915]}, "gradients/backbone.0.bias": {"_type": "histogram", "values": [1.0, 0.0, 0.0, 0.0, 0.0, 0.0, 0.0, 0.0, 0.0, 0.0, 1.0, 1.0, 0.0, 1.0, 1.0, 1.0, 0.0, 0.0, 0.0, 1.0, 0.0, 0.0, 0.0, 2.0, 1.0, 0.0, 1.0, 2.0, 5.0, 4.0, 9.0, 2.0, 6.0, 1.0, 1.0, 1.0, 0.0, 2.0, 1.0, 2.0, 3.0, 1.0, 1.0, 0.0, 1.0, 0.0, 2.0, 0.0, 0.0, 1.0, 0.0, 1.0, 1.0, 1.0, 1.0, 1.0, 0.0, 0.0, 0.0, 1.0, 0.0, 1.0, 0.0, 1.0], "bins": [-0.03257980942726135, -0.03150036931037903, -0.030420931056141853, -0.02934149280190468, -0.028262052685022354, -0.02718261256814003, -0.026103174313902855, -0.02502373605966568, -0.023944295942783356, -0.02286485582590103, -0.021785417571663857, -0.02070597931742668, -0.019626539200544357, -0.018547099083662033, -0.017467660829424858, -0.016388222575187683, -0.015308782458305359, -0.01422934327274561, -0.01314990408718586, -0.01207046490162611, -0.01099102571606636, -0.009911586530506611, -0.008832147344946861, -0.007752708159387112, -0.006673268973827362, -0.0055938297882676125, -0.004514390602707863, -0.0034349514171481133, -0.0023555122315883636, -0.001276073046028614, -0.00019663386046886444, 0.0008828053250908852, 0.0019622445106506348, 0.0030416836962103844, 0.004121122881770134, 0.005200562067329884, 0.006280001252889633, 0.007359440438449383, 0.008438879624009132, 0.009518318809568882, 0.010597757995128632, 0.011677197180688381, 0.01275663636624813, 0.01383607555180788, 0.01491551473736763, 0.015994954854249954, 0.01707439310848713, 0.018153831362724304, 0.01923327147960663, 0.020312711596488953, 0.021392149850726128, 0.022471588104963303, 0.023551028221845627, 0.02463046833872795, 0.025709906592965126, 0.0267893448472023, 0.027868784964084625, 0.02894822508096695, 0.030027663335204124, 0.0311071015894413, 0.032186541706323624, 0.03326598182320595, 0.034345418214797974, 0.0354248583316803, 0.03650429844856262]}, "_wandb": {"runtime": 84}}